digraph Tree {
node [shape=box, style="filled, rounded", color="black", fontname="helvetica"] ;
edge [fontname="helvetica"] ;
0 [label="perimeter_worst <= 112.8\ngini = 0.467\nsamples = 398\nvalue = [250, 148]\nclass = B", fillcolor="#f4ccae"] ;
1 [label="concave points_worst <= 0.181\ngini = 0.135\nsamples = 260\nvalue = [241, 19]\nclass = B", fillcolor="#e78b49"] ;
0 -> 1 [labeldistance=2.5, labelangle=45, headlabel="True"] ;
2 [label="area_se <= 35.435\ngini = 0.083\nsamples = 252\nvalue = [241, 11]\nclass = B", fillcolor="#e68742"] ;
1 -> 2 ;
3 [label="smoothness_worst <= 0.191\ngini = 0.042\nsamples = 234\nvalue = [229, 5]\nclass = B", fillcolor="#e6843d"] ;
2 -> 3 ;
4 [label="symmetry_worst <= 0.365\ngini = 0.034\nsamples = 233\nvalue = [229, 4]\nclass = B", fillcolor="#e5833c"] ;
3 -> 4 ;
5 [label="texture_worst <= 33.105\ngini = 0.026\nsamples = 231\nvalue = [228, 3]\nclass = B", fillcolor="#e5833c"] ;
4 -> 5 ;
6 [label="smoothness_se <= 0.003\ngini = 0.009\nsamples = 215\nvalue = [214, 1]\nclass = B", fillcolor="#e5823a"] ;
5 -> 6 ;
7 [label="symmetry_mean <= 0.176\ngini = 0.245\nsamples = 7\nvalue = [6, 1]\nclass = B", fillcolor="#e9965a"] ;
6 -> 7 ;
8 [label="gini = 0.0\nsamples = 6\nvalue = [6, 0]\nclass = B", fillcolor="#e58139"] ;
7 -> 8 ;
9 [label="gini = 0.0\nsamples = 1\nvalue = [0, 1]\nclass = M", fillcolor="#399de5"] ;
7 -> 9 ;
10 [label="gini = 0.0\nsamples = 208\nvalue = [208, 0]\nclass = B", fillcolor="#e58139"] ;
6 -> 10 ;
11 [label="texture_mean <= 23.24\ngini = 0.219\nsamples = 16\nvalue = [14, 2]\nclass = B", fillcolor="#e99355"] ;
5 -> 11 ;
12 [label="gini = 0.0\nsamples = 2\nvalue = [0, 2]\nclass = M", fillcolor="#399de5"] ;
11 -> 12 ;
13 [label="gini = 0.0\nsamples = 14\nvalue = [14, 0]\nclass = B", fillcolor="#e58139"] ;
11 -> 13 ;
14 [label="symmetry_worst <= 0.396\ngini = 0.5\nsamples = 2\nvalue = [1, 1]\nclass = B", fillcolor="#ffffff"] ;
4 -> 14 ;
15 [label="gini = 0.0\nsamples = 1\nvalue = [0, 1]\nclass = M", fillcolor="#399de5"] ;
14 -> 15 ;
16 [label="gini = 0.0\nsamples = 1\nvalue = [1, 0]\nclass = B", fillcolor="#e58139"] ;
14 -> 16 ;
17 [label="gini = 0.0\nsamples = 1\nvalue = [0, 1]\nclass = M", fillcolor="#399de5"] ;
3 -> 17 ;
18 [label="radius_mean <= 14.815\ngini = 0.444\nsamples = 18\nvalue = [12, 6]\nclass = B", fillcolor="#f2c09c"] ;
2 -> 18 ;
19 [label="compactness_worst <= 0.318\ngini = 0.32\nsamples = 15\nvalue = [12, 3]\nclass = B", fillcolor="#eca06a"] ;
18 -> 19 ;
20 [label="symmetry_worst <= 0.2\ngini = 0.142\nsamples = 13\nvalue = [12, 1]\nclass = B", fillcolor="#e78c49"] ;
19 -> 20 ;
21 [label="gini = 0.0\nsamples = 1\nvalue = [0, 1]\nclass = M", fillcolor="#399de5"] ;
20 -> 21 ;
22 [label="gini = 0.0\nsamples = 12\nvalue = [12, 0]\nclass = B", fillcolor="#e58139"] ;
20 -> 22 ;
23 [label="gini = 0.0\nsamples = 2\nvalue = [0, 2]\nclass = M", fillcolor="#399de5"] ;
19 -> 23 ;
24 [label="gini = 0.0\nsamples = 3\nvalue = [0, 3]\nclass = M", fillcolor="#399de5"] ;
18 -> 24 ;
25 [label="gini = 0.0\nsamples = 8\nvalue = [0, 8]\nclass = M", fillcolor="#399de5"] ;
1 -> 25 ;
26 [label="concave points_worst <= 0.14\ngini = 0.122\nsamples = 138\nvalue = [9, 129]\nclass = M", fillcolor="#47a4e7"] ;
0 -> 26 [labeldistance=2.5, labelangle=-45, headlabel="False"] ;
27 [label="texture_worst <= 21.855\ngini = 0.461\nsamples = 25\nvalue = [9, 16]\nclass = M", fillcolor="#a8d4f4"] ;
26 -> 27 ;
28 [label="gini = 0.0\nsamples = 5\nvalue = [5, 0]\nclass = B", fillcolor="#e58139"] ;
27 -> 28 ;
29 [label="fractal_dimension_mean <= 0.063\ngini = 0.32\nsamples = 20\nvalue = [4, 16]\nclass = M", fillcolor="#6ab6ec"] ;
27 -> 29 ;
30 [label="fractal_dimension_worst <= 0.065\ngini = 0.198\nsamples = 18\nvalue = [2, 16]\nclass = M", fillcolor="#52a9e8"] ;
29 -> 30 ;
31 [label="area_worst <= 1146.5\ngini = 0.444\nsamples = 3\nvalue = [2, 1]\nclass = B", fillcolor="#f2c09c"] ;
30 -> 31 ;
32 [label="gini = 0.0\nsamples = 2\nvalue = [2, 0]\nclass = B", fillcolor="#e58139"] ;
31 -> 32 ;
33 [label="gini = 0.0\nsamples = 1\nvalue = [0, 1]\nclass = M", fillcolor="#399de5"] ;
31 -> 33 ;
34 [label="gini = 0.0\nsamples = 15\nvalue = [0, 15]\nclass = M", fillcolor="#399de5"] ;
30 -> 34 ;
35 [label="gini = 0.0\nsamples = 2\nvalue = [2, 0]\nclass = B", fillcolor="#e58139"] ;
29 -> 35 ;
36 [label="gini = 0.0\nsamples = 113\nvalue = [0, 113]\nclass = M", fillcolor="#399de5"] ;
26 -> 36 ;
}